<?xml version="1.0"?>
<opencv_storage>
<stage8>
  <maxWeakCount>10</maxWeakCount>
  <stageThreshold>-9.9264198541641235e-01</stageThreshold>
  <weakClassifiers>
    <_>
      <internalNodes>
        0 -1 92590 2.6410212740302086e-03</internalNodes>
      <leafValues>
        -4.1184869408607483e-01 7.2772324085235596e-01</leafValues></_>
    <_>
      <internalNodes>
        0 -1 88748 -9.9720694124698639e-03</internalNodes>
      <leafValues>
        6.2626147270202637e-01 -4.3345275521278381e-01</leafValues></_>
    <_>
      <internalNodes>
        0 -1 44288 8.5271671414375305e-03</internalNodes>
      <leafValues>
        -6.5560972690582275e-01 3.2586926221847534e-01</leafValues></_>
    <_>
      <internalNodes>
        0 -1 121681 -1.1757848784327507e-02</internalNodes>
      <leafValues>
        3.3419993519783020e-01 -5.9298390150070190e-01</leafValues></_>
    <_>
      <internalNodes>
        0 -1 110148 4.6470249071717262e-03</internalNodes>
      <leafValues>
        -4.0715241432189941e-01 4.3430554866790771e-01</leafValues></_>
    <_>
      <internalNodes>
        0 -1 73779 7.6134584378451109e-04</internalNodes>
      <leafValues>
        -3.1923866271972656e-01 5.0316137075424194e-01</leafValues></_>
    <_>
      <internalNodes>
        0 -1 17939 2.9184456914663315e-02</internalNodes>
      <leafValues>
        -7.9839545488357544e-01 1.7798417806625366e-01</leafValues></_>
    <_>
      <internalNodes>
        0 -1 144296 -5.5341210216283798e-02</internalNodes>
      <leafValues>
        5.7265424728393555e-01 -2.7842932939529419e-01</leafValues></_>
    <_>
      <internalNodes>
        0 -1 126392 1.0001289192587137e-03</internalNodes>
      <leafValues>
        -3.8753080368041992e-01 3.7084528803825378e-01</leafValues></_>
    <_>
      <internalNodes>
        0 -1 87149 -2.6009689463535324e-05</internalNodes>
      <leafValues>
        2.7118685841560364e-01 -4.8780977725982666e-01</leafValues></_></weakClassifiers></stage8>
</opencv_storage>
