<?xml version="1.0"?>
<opencv_storage>
<stage7>
  <maxWeakCount>7</maxWeakCount>
  <stageThreshold>-1.1463346481323242e+00</stageThreshold>
  <weakClassifiers>
    <_>
      <internalNodes>
        0 -1 71002 3.6621898412704468e-02</internalNodes>
      <leafValues>
        -5.7297295331954956e-01 6.3008850812911987e-01</leafValues></_>
    <_>
      <internalNodes>
        0 -1 105555 3.6589859519153833e-03</internalNodes>
      <leafValues>
        -5.7069641351699829e-01 5.2737104892730713e-01</leafValues></_>
    <_>
      <internalNodes>
        0 -1 97662 2.6000413345173001e-04</internalNodes>
      <leafValues>
        -7.1903896331787109e-01 3.9587047696113586e-01</leafValues></_>
    <_>
      <internalNodes>
        0 -1 55335 2.0608748309314251e-03</internalNodes>
      <leafValues>
        -8.6198276281356812e-01 3.0318680405616760e-01</leafValues></_>
    <_>
      <internalNodes>
        0 -1 119595 -4.3623705278150737e-04</internalNodes>
      <leafValues>
        4.1783455014228821e-01 -5.9250754117965698e-01</leafValues></_>
    <_>
      <internalNodes>
        0 -1 139094 -1.9071251153945923e-03</internalNodes>
      <leafValues>
        6.5824294090270996e-01 -4.1119673848152161e-01</leafValues></_>
    <_>
      <internalNodes>
        0 -1 117552 -2.1283729001879692e-03</internalNodes>
      <leafValues>
        3.0198174715042114e-01 -7.0359897613525391e-01</leafValues></_></weakClassifiers></stage7>
</opencv_storage>
